22 100
that -0.00047565940688152545 -0.001350415156180547 0.004047015368335203 0.007706966468090699 -0.009655063080903015 -0.0062815092455407884 0.005486709023402496 0.0062795028339182445 -0.0034494987657209012 -0.0016967407751839014 0.0068378324967025865 0.0003979812000497159 -0.004746610222024505 0.006241664286459458 -0.005490886097091292 -0.0011764535183002326 0.0010654669101561672 0.0005837920613306447 -0.007442158150793561 -0.00598987623710524 0.006699572657949333 0.004881384359164672 0.005268411101000807 0.0012188578574833546 0.007167682012136951 -0.004620175237174739 0.0007104596456470476 0.005333479499148036 -0.007456654006091412 -0.004670829190713861 -0.008679235678176734 0.0009074070496188306 0.008669206832895394 -0.006013238889202264 -0.0014932218559393236 -0.0029374329209200696 0.0077115148848282515 -0.006451856743793045 0.0009934699538792881 -0.0037817371366228062 -0.011036580126859586 0.006045386232224039 -0.00792237735797905 -0.006948644239772958 -0.0002743197097019716 0.0004728754918852991 -0.005997543072391471 0.011298652741970727 0.004267587008970705 0.008514965937303548 -0.00850546280575641 0.0060859411036786205 -0.0036570435373009373 0.0014986138769679449 0.009671898452903737 -0.004431448700581148 0.003710319406474644 -0.006073743136684326 -0.0038657494131422773 0.009196004787967964 -0.0009143982169916853 0.00040060686429073525 -0.006612166430303742 -0.008308001681474376 -0.0003365169038509273 -0.00026643769061510374 -0.0013382616585162891 0.0032217303656083955 -0.001376358379109826 0.0026537786999886685 0.004764325377023355 0.006485620923988543 -0.002774060507363174 -0.010222874458783983 0.0028460351723796603 -0.0002721196532630447 0.005861860542526384 -0.0019426315319089388 -0.00230976262669587 -0.007771033320089125 0.001811976183406924 0.003450754093302583 0.004955654113225385 0.006240444566091438 -0.005354496660980989 0.002276644756255502 0.004543931227420795 -0.003888643822971393 -0.003424703326097436 0.006837287900204749 -0.000114795299437405 -0.0007856597301063382 0.0028126169636379927 -0.0005034260724311356 0.007756539539762096 0.004840823730773991 -0.009764558221335888 -0.007197575720386918 0.0005396053734743459 0.005259053134729832
with -0.008763294282041235 0.002267554534641518 0.0042225091376828705 0.0046321425893851974 0.0071864891393819234 -0.005375663465615204 0.0002808201401917772 0.0036562996233855797 -0.0015641475064595315 -0.0042229988936345435 -0.0009309955467787487 -0.006647848352176053 -0.005876203922195022 0.00685501982992388 0.0027929641741634855 0.007821032687471334 0.005040177966954863 0.00721125870735374 -0.003144673507036218 0.002574607719328593 0.0016825598345762542 -0.004770136395977302 0.007240031701671383 -0.009545576843348417 0.007566509263183847 0.0017300060611556876 -0.0033811148155522956 0.004086416219996119 -0.001786217348126229 0.00608035139289727 0.009038821004320529 -0.0028316528531087733 -0.0013524063211992723 -0.004551835444792893 0.00467416736368746 0.001887133384694938 0.006698785869626921 0.005702799252917017 0.010523408836103375 0.010198077344367364 0.00652119826885279 -0.006041879728648134 -0.00867536283542656 -0.002677723709811372 -0.003326686548958109 0.008647840009705926 0.007657564395975152 0.00015151780462474562 0.0008295588512820276 0.0011099592613225632 0.007526093956998507 -0.008149612227994525 0.000323426825575139 0.0041183012865737756 0.00012061513156037449 0.008404471156443999 0.008281691583926493 0.007144797095944258 -0.0009905388704448176 0.0074643534184856844 -0.007952205822221003 0.003191460274551487 -0.006857841874906709 -0.005848936624137092 0.0045386184713358734 0.002910558793783738 0.007489830824356019 -0.007849389557536184 0.008540330402121816 0.007208594290370291 -0.004485712926411494 -0.010344235747404375 0.004336301317380276 0.005656502798294902 -0.002329322803151709 -0.0074714504325212065 -0.008734744665244678 -0.0035900865094101227 0.005437749916878106 -0.002946327432503246 -0.006962772470697845 0.004327617580367421 0.0045507853726369585 -0.0072789622182344 0.0014991245592351665 -0.0018550375772809439 -0.001519845037943345 -0.00922229328319769 0.002372573180102997 -0.004693249258046059 -0.0005582353465301408 -0.0025160997690611775 0.0015956535644363612 -0.008669568375229243 -0.0043088639729169445 0.0024823077510518488 0.0045854476698381896 -0.0025181275162718853 -0.009808964693961158 0.003419649140348404
which 0.00024225202584850854 0.0013957055211490529 -0.007870807160295291 -0.0026557471296242015 0.007378027268383779 0.008310715952161858 -0.004723201315342025 -0.0001743069601202892 -0.0066278773328204725 0.00838573460020019 -0.005219076073527421 -0.0011800085802943531 0.009124191554623063 0.000635706291756254 0.006822747594428207 -0.005370057277931747 0.0033449846166397697 0.009599156284490495 -0.007610456521929749 -0.001486269884150137 -0.007685653990351553 -0.005054737864570184 -0.005396584891555407 -0.008113257671621714 0.008880414494838491 -0.0060201088305224075 0.010119337226073681 0.0048500369355844505 -0.006461592645791825 0.0032325322694801303 0.004276443414379504 -0.005548772029049525 -0.008305891922315244 -0.0011528333118555813 -0.007806927672804291 -0.0027454484555743293 -0.0008170581171394919 0.0027307114300624976 0.0024439809595936494 0.00010562214910433704 -0.007124443236865442 0.00283098783322864 2.257394159890032e-05 0.004173381775300103 0.0036871279748579996 0.005361231514887715 0.0031665495242288507 -0.001059567086485913 -0.005109307208013805 -0.0017774140631610699 0.0010749863954102198 -0.0010816839044723151 -0.006672309803021067 -0.007170858946417205 -0.007944128581915389 -0.005857851645652607 -0.00270661210908491 -0.003540309643457559 -0.006799859065557195 -0.0039035443174229426 0.004946542918332852 -0.003618658868204379 0.005802567216133783 0.0009780413198644633 -0.006058704596150413 0.00668537217015083 0.007222335423152386 0.00309527119547552 -0.005435814202263084 0.006323079282248562 0.003309681471860544 0.0032112718938812827 0.0029126611407264136 0.0008266331926940686 -0.004769963680618358 0.007383763962107795 0.008027131977459332 0.002609657787781378 -0.0025338781865271317 0.0009997918757356026 0.0038895492206475783 -0.00785901514411142 -0.008757228416718797 -0.0010708437303864312 0.0016095259819518437 -0.005280045263299888 -0.0063065942337165 -0.0064943595895205035 0.007944542964899236 9.515287522596984e-05 -0.006317633217391134 0.004619452934341759 0.008542862924514338 -0.004824178908496502 0.005912661471732215 0.005136109797604149 0.00503621664351654 0.00043146810970607805 0.0077669949810528615 -0.008101695398429663
this -0.007989093276343985 0.007515020800796761 -0.00130620464253959 -0.0032932562912306325 0.004275785718742885 -0.0030633464406987928 0.001572669441388412 0.0039597296404694626 0.007852783336685123 -0.005197300142423377 0.00876800970846406 0.006777114406841892 0.0038716942839197477 -0.006521227773522365 0.007805292444986249 -0.0014770457954992626 0.006897178370061076 -0.005728942735334964 -0.007224441941203126 0.010623869359154593 0.0009968181753224185 -0.0023545298767699437 0.007696679649101994 0.00995316347953948 -0.008833992800150141 0.001267952484671365 0.007900944082807242 0.0034559173562394626 0.0021375146243372 -0.00036567027431870383 -0.0006575241317147049 -0.0018341132434381343 -0.008074029388477687 -0.0005912662884590893 0.0047186843499234365 0.007597121216928248 0.008727064410446805 -0.006625835251311813 -0.008457617649458949 0.010726132587561468 0.0017565626873296094 0.006377654652830891 0.007348639504264363 -0.005502981543858451 0.007004595377524806 0.0036159975041466005 0.004633515525545756 -0.0007306567822524812 -0.003929538969797167 -0.0031343895878473468 0.0038546415539299646 0.001736301377108744 -0.009200199132961146 -0.009025016021703115 -0.004923465767536651 -5.779885230533017e-05 0.0010268247007678094 0.010259623141874643 0.005267153423284815 -0.0044884835793213415 0.000998760006041266 0.0051172791294944045 0.005048593605434607 -0.0016470880985831504 0.005511573027681813 -0.00870272404691522 -0.0012799382225652648 0.0056491481505376705 -0.0009041969258925581 -0.00919718092138117 0.005113610923713581 -0.005938341663502135 -0.0026737311054603197 0.008768849197870375 -0.0038823215317362074 -0.005693201269340617 -0.006898250588247637 0.005737303954612633 -0.005467166645261882 0.0031909267497460614 -0.0024305218949765813 0.006771338865457272 0.003707677672289058 0.0018504421049411494 -0.0010957156879488716 -0.0021781131455844097 0.00732403947437309 0.006128738158043812 -0.002492836626267738 -0.009420554636810928 -0.009344353353795172 -0.0021731007079572673 -0.0014746553206350654 -0.003255646592482332 0.007540681318708019 -0.0007020112279860768 0.004990045395557403 -0.007508654224114831 -0.0028994329199618237 -0.006720340991953642
have -0.00725548769035165 -0.00011010571192442012 -0.008220938813544555 -0.0035747091910293834 0.00330087585065154 0.006629460775498459 0.0003908441444350915 -0.00028548405812629926 -0.0027840073188682172 0.009098207545651927 -0.006828757713347758 0.006431787446755069 -0.008505809044105594 0.0015803974780613894 -0.005541076467621182 -0.0038425704432566736 -0.004944493869764054 0.005231373550156026 0.006459390309332362 -0.00179565850306641 -3.274926844328138e-05 -0.008762126746164127 0.00661112353687217 0.009762644683095541 -0.0021604521129616346 -0.0004998219188895416 0.0024146520749623464 0.005061555659102107 -0.008608171039668377 -1.887892589862031e-05 0.005824376970518973 0.0036938620270864867 0.0002720028463624078 -0.008185838901474861 0.00926960468363673 -0.007069140865827318 -0.003144995022342879 0.003119190755982841 0.00017139398108735235 0.0023538116775770586 0.00047537318790670155 -0.005889038518282839 -0.009223533714909783 0.006738903522173959 0.005982270945837213 -0.0062647061369551175 0.005096499726112763 0.0019480611408653203 0.004023223332214085 -0.00781592022923922 0.003751704332402865 0.005687697791886008 0.010570899957615025 -0.0038143821663900535 -0.00045632313809950233 -0.007293585511599138 -0.01033722178346414 -0.008523614643226294 -0.0013504551732859743 -0.0068619032813744115 0.005552067901589908 -0.006225806543211961 0.0004129648269471627 -0.00011674073572397572 -0.002408752240378156 -0.0034536135307544928 0.009656547206263482 0.007056552580748261 -0.003428870864643779 0.00944033840840513 -0.0063516321401535115 0.004384178613029442 -0.004198133399768267 0.002628269728368402 0.001503995849899101 0.006381235723066228 -0.004053855937937359 0.007795348961901089 0.007802197722908618 -0.008713657494147563 -0.005473931331917728 -0.007096386287065054 0.002617925486199304 -0.0037022639708910983 -0.006664721305820753 -0.007917942881414836 0.006748276300971735 0.0028614839433099733 -0.009646299244857139 -0.004674240032975583 0.0015336791852446781 -0.005547540896011263 0.004541701375273988 -0.004989715908198956 0.001177892939515666 -0.008252718111180002 0.005467285350774049 0.004583683719498698 0.000551324554676698 0.0017895587304585868
they -0.008795620488606139 0.0006801196299916642 -0.00185065654725556 -0.010583246841137721 -0.009961843530949078 -0.0006718508152103327 0.0035842670635743575 0.0012900096613024784 -0.0051905611498196695 -0.00504541912563251 -0.0055136487472654235 -0.00047083810469220316 -0.007620654923481528 -0.010002849161868322 -0.0034100902762888422 -0.00783965419660407 -0.007781861458418214 -0.0061477100683656645 -0.001614928680778989 0.0013760871846567498 -0.009707282422327395 -0.0009629304563118653 0.006990155992256901 0.008166858376088467 -0.006570285691354498 -0.00486091257665645 0.00462985491454178 -0.009944063606036996 0.0014925538343959488 0.005976440007957122 0.004711263488967565 -0.0071451436722947455 -0.005264558869054203 -0.007010477216020015 0.0008233643662110394 0.008410963968014006 0.005719443837402981 0.004577974855651106 0.005948671790189441 -0.002340175985326906 0.008267331238709052 -0.006407868080052801 -0.006728129382033579 -0.004654056104217571 -0.0010209203306162221 -0.0025619436002505772 0.0010576732218561863 0.009205279875459382 -0.0013872315440411594 -0.0022700416792014785 0.002409508780560414 -0.006988871375638568 0.008429166303771623 0.009296240131582388 -0.008605217666957866 0.0024376380623090717 0.009186236771876627 -0.007119942022572187 -0.007277075272048189 -0.008002436762167648 0.009091372616239823 -0.0007081205244916914 0.00696305381742687 -0.008915989547280002 0.004781781207632527 0.00013006684193070123 0.00037151573765599596 0.00018441061415201557 -0.006410694733693328 -0.009007157588546926 0.001653122874400155 0.00465264864330741 0.006832560138718691 0.00482437678808558 -0.002250480235406113 0.007671511904019016 -0.010961417731860736 0.002364606329303404 0.0005831961303060366 0.004684919499347664 0.00994237045498184 -0.006188269011379982 0.005249878472320482 -0.01032429995856629 -0.0005483494711701165 -0.008508174151012843 -0.006635376248265278 0.010180243280377577 -0.002166677099673755 0.003029353666285963 0.0075195776166352025 0.008079016413169236 -0.008995659445645288 -0.003735003443911079 0.008291363635428504 0.004833671639062231 -0.0024045927497850657 -0.008921461256580766 0.0027223100028508766 -0.007754982630351812
from 0.00829702188573058 -0.006200699469032274 -0.002148624241024002 -0.00028675225753845143 -0.0005598709361617115 0.0021318606382423736 0.004999147220091387 -0.0029171091022858905 -0.0015009754305620763 0.0006765242109064607 0.00531565094107381 0.0035761393929450687 -0.0009053717182144861 0.009042940564210188 -0.005606503741133069 -9.672818387943232e-05 0.007352481487693942 0.0063266903886291075 0.002369249968482605 -0.005179010924290527 0.00048261367787331847 -0.0024352925406260924 0.00769062139575412 0.0016769288658079777 0.0024218777730724964 0.0012391841631721366 -0.00015970705002969635 -0.005430339830292558 0.0003599362462409772 -0.00272277698836247 0.005387907989312556 0.01088138334506022 -0.0015663541086145085 0.00437868936635575 -0.005328216365755494 0.0005351214600853962 -0.007401852348597127 -0.009322644144545351 -0.004932023400091235 -0.007982430822184226 0.005712658468506892 -0.004582259766969152 0.009275745679836044 -0.009956481810976667 0.003103286043783142 0.010490898048208857 -0.0060284555312881075 -0.008284748528240016 -0.00510181704620746 -0.0034060163359919734 -0.0006578244124697944 -0.007240269797462546 -0.008271649105650298 0.0034837860942140897 -0.007031655976210128 -0.00900681392357166 -0.003246808539022988 -0.007823585098693995 -0.007378811087454034 -0.008612187621607021 0.00039162235043477267 -0.004394014248232866 0.004065941652780483 0.0009979577695379371 -0.002140881749007597 0.003280637513936116 -0.006478136302162469 -0.007131041363622486 -0.005805091519340005 -0.0039040053432637997 -0.002480566575699909 0.004533524569772206 -0.004170991633145604 0.0037305393555222754 0.005266312972790646 -0.008478249251228673 0.0029592037489320237 0.004901464761298319 -0.0026552833018782126 0.007677618422100998 0.008904588396862066 -0.005846855934412981 -0.007339185954399661 0.0017511789509709079 -0.0012299994811077008 -0.005608334142545407 0.007852887273078191 -0.004218437719497491 -0.006926912298447199 -0.00012979551254168408 -0.004564307643291117 -0.0006190389328615063 -0.004237840446876362 -0.0011007360047766601 -0.0028078676484504035 0.000531899477209663 0.007287479420070171 -0.005811343046265061 -0.002075520709199323 0.004488305938800543
will 0.008175419097163038 -0.005934233644934879 0.007933563239269213 0.007109013603026555 -0.004694223909940443 0.001158022405930255 0.0033582998016341166 -0.006571582214250653 -0.004130660180552778 -0.00445084696151422 -0.0012325582912043583 0.001613073572198945 0.004303786980348046 -0.0027269758323778992 -0.0006493168244064277 0.003042325287507 0.0030853714640463954 -0.00033538396416009743 -0.00564217471268917 -0.0058785580437291755 -0.0005962203080839986 0.006431427826596932 8.762240891387182e-05 -0.008595089512792501 -0.007058707571063265 0.005336827937174927 -0.002199010354657234 0.0058553949982689864 -0.0066616374751902185 0.007782395552071235 -0.007534095410268161 0.005002860585756769 -0.0019319887902714652 -0.00553245618291178 -0.002453300412029917 -0.002146997856801714 -0.0058571863377106965 -0.00165731814062879 -0.006580762380384509 0.003512695821965198 0.007591092329345305 -0.001379390908616849 -0.00016316472531550312 0.0010355888490184125 0.00841591881312938 -0.005173919251484966 -0.0051906791870185934 -0.0012726350651064422 0.008455265461551871 0.0001435779797082597 -0.008993952672013123 -4.53542320015413e-06 0.00991636086423982 -0.006929715317462317 -0.0042709010780196295 0.009409714666451857 -0.009755093951587862 0.004550703303803774 0.00032184620993741026 0.006410559131340547 0.008995186552056111 -0.0027318723719376562 -0.006340560869747688 0.008263692372235131 0.003158543236416087 0.003654993333012416 -0.009771104333181442 0.007453594952080906 -0.00010634044321539637 -0.005583960393613035 0.002290502349338071 -0.002272446469512281 0.003463128196017351 -0.003192684606553733 -0.005649302623086524 0.0014567851877390322 0.0067013169927205045 -0.006047955981392244 0.002902274731737138 -0.007126799311002039 -0.00421114779336759 8.738040394911707e-05 -0.009227972862638788 0.00198465779513671 0.0020168127851899376 -0.0019402896816080265 0.0035085491875758053 0.01053085083946247 0.008139656906926328 -0.0018558746844725895 0.00031702382098460066 -0.004996399097515016 -0.008886689116479829 0.005527272670984861 -0.003688164019629105 -0.0008238117770815734 -0.0025542057632761002 -0.00472643327190202 0.0036781279909932478 -0.005424400041440756
their -0.009535545098267241 0.0073874324020421645 0.003061481903635219 0.007949975536162541 0.006403264083597936 0.003809004840646098 0.008805080274627968 -0.007052483897000044 -0.005284641959323463 0.0063018779877562665 0.00313277238720647 -0.0037991235175551 0.009523406701522286 -0.0038501406128158455 0.00900926808522358 0.0014713695537383583 -0.008153522961286151 -0.002322085362142058 -0.006544559232266196 0.0005211991850625382 0.00034340784490764645 0.009217694444073872 0.007855304372655652 -0.006233535326001319 0.004314832117002383 0.0010530307084660637 -0.0008643948372495784 -0.009608551854564046 0.0011544229128048755 -0.008860829663304188 0.005279747445125726 -0.004103968478210101 0.0046357111608482555 0.011181555136069866 0.000636075352800121 0.0035268280586354776 -0.002135381863230247 0.0069104657245175494 0.004943541435874398 -0.008051767787864348 -0.0038621676397848533 0.004673889176708392 0.00071628807133741 -0.003640807934888554 -0.0013521501519293947 -0.0008566989510489458 0.002371876884188334 0.005800707735033939 -0.0050039378375830975 -0.004587245120836253 -0.000361429125901354 0.0017115426030200483 0.0002713594507936664 -0.004131896574769847 0.0054160090036351576 -0.0020876352775138166 0.0013061006340483966 0.0014214349185666915 0.005742239229386376 -0.007107007359577851 -0.006190375410369597 -0.004393963491152549 0.007110759715115736 -0.002215341668819416 -0.008372731529313816 -0.003173079569850498 -0.004779471446950496 0.0037181285575074567 -0.008320228249265876 0.0033684332685714417 -0.009987580198371275 -0.0005870162828862453 0.004785878198163118 0.006447776343768716 -0.009186903483086182 -0.006889569401127202 -0.008505250019053081 -0.009029487415153364 -0.009258307037684559 -0.0012016338216860524 0.0017535432588457215 -0.0066816431988792665 0.006315611383549615 0.0002891231150980192 0.006241919462230395 0.0018292627699503846 -0.0008617571981052276 -0.006578686657700349 -0.002478132905459709 0.004308041633273454 -0.006836454397257925 0.00014870655220213598 0.002249769604532048 -0.0022586132730463182 0.008087829606004314 0.008116698267258471 0.0016533894882245063 0.007051910197002475 0.005570344028952108 -0.0067175898650682275
would -0.0051056701565605845 -0.008293521458240733 -0.008823268429048105 0.006980953955049203 -0.002337371737997852 -0.005961041147615602 -0.005151629955931143 0.002405332240000875 -0.001237914288966832 -0.001701595759765372 0.0010461936352922667 -0.0008442425777585331 -0.0018017498474695128 0.0006940932904729958 -0.0036253317289678803 0.009187415617899123 0.0020581813375677234 -0.010439535996159644 0.007070386347053996 -0.003197081048380245 4.9878485283856664e-05 0.004243870773776011 -0.00664668684343765 -0.0016716973305764523 0.008861711674895063 -0.0054573390040208 -0.005941487279911102 0.008805066352413798 -0.00205774817004567 -0.005383706097332337 0.007402620419849303 0.00606506122329103 0.00338894869888794 0.0106184132461997 -0.007672651446641381 0.004285573300545697 0.0016959773453312332 0.003663749500860418 0.0026644606360936123 0.005493306712279181 0.003095187548420985 0.007195500228342346 -0.0023614467724903743 -0.007181181982477111 -0.0006778890806758268 0.0033382852614687927 -0.0015069999155292119 0.00774758682018728 0.0034053122243759308 0.007054543175565248 0.0022379284286712805 0.00962662371007768 -0.0008809435862944652 0.008772894586648115 0.004817991178821434 -0.007946704338048055 -0.004728723897476977 -0.00168940125414255 0.004592110332106875 -0.0011220829751850529 -0.002138443509466015 0.007920287201572633 0.0068772557252404195 -0.0022672956150596624 -0.003967640012640252 -0.007452185071914838 -0.0053275552477729925 -0.011994793415810405 0.0027046287488536273 -0.003863807132636959 0.001826550038954751 0.0037275785027966117 -0.005326269812940154 -0.010638329077416776 -0.00010323815777982508 -0.007599431383741004 0.0008352036410625178 -0.004973584587622265 0.007396148530956866 0.0016531678927342662 0.006269413965955292 -0.0021269316837953575 -0.0022163665046470915 0.006763086496820589 0.0018001615429635754 -0.005486676871607249 -0.009509349703545344 0.0021608809369023547 0.006159741947406225 0.005572462436909766 -0.01077742596548474 0.007624720055239529 0.0033003824937622994 0.0067607852066761225 0.007846261293955402 -0.0075377333887445275 -0.009935479196842194 0.005704763734353368 0.009037756694438443 0.0023334629883968528
there 0.007385536947615698 -0.003428796290377663 0.006826694741241888 -0.01088444121838124 -0.008379943709190808 -0.005589989661034038 -0.005228600507094101 0.001879693778887899 -0.0018901127358813856 -0.00598677157871531 0.007806378171980296 -0.0015913218402684752 0.008508696297543462 -0.005197096154337156 0.0032035945418597707 0.005692545700267973 0.0004701513177926904 -0.003259636389305921 0.003798447579769841 -0.004283262078057636 -0.0034479379041427323 -0.0027208688711239533 0.005319460150944493 -0.003007165240970525 -0.005608380811695084 0.003100957128811966 0.0013248970366972076 -0.004105430556757545 0.007080911404045764 0.00307553037551274 -0.0052588906586276025 0.002843481803376397 0.00814995538199913 0.009299288417175623 0.007140776366709773 0.0034251294961326166 0.0018424103578912432 -0.0025247904036818495 -0.005365881418459718 0.0007123893420529466 -0.0032208010564896868 0.0006819425986825743 -0.005074134017129175 0.004557345118056136 -0.006947292930404233 -0.006345702795608138 -0.0009571212232747878 0.00015830283882678486 -0.008489683122289452 -5.2261695435101385e-05 -0.005726419526168188 0.00042589602658567446 -0.007035948427569979 0.0026780959081158717 0.0045149898029525175 5.93327366170177e-05 -0.006375708033209032 -0.000824781399304894 0.00671045894176297 0.0035362245557321744 -0.008169599794200622 -0.0032012533616084097 -0.00041586290436415856 0.0016440720024878497 -0.008156658172745003 0.001584178961903407 -0.009200437356908382 -0.010051725768293678 0.005053903156460199 -0.0030657884834164924 0.002899607336571948 0.006745542810015402 -0.00506537585897604 0.008038862731402995 1.0860382727431901e-05 0.008754481733459132 0.004098184714993377 -0.010454502689588646 -0.003027808373603462 0.00776179740999148 0.008569890155658042 0.009380478173790669 0.0062479549894553866 0.007200914743324657 -0.009371739357117225 0.00489291648211127 -0.006787141781056893 0.004476477847095917 0.005719359548741274 0.004411463142539354 0.005543083870592951 0.0003885807884878225 -0.0019905885274056345 0.005082479994267818 -0.007929967331371947 -0.0002203206931881141 0.008483679448132038 -0.005543171970533545 0.0033384457770311697 -0.009279199125806124
them 0.0098864337553757 0.006483340768185868 0.0001655280714410103 0.003779316537971185 0.0011079031570592301 -0.005439017615075996 -0.002542418819344179 0.0035652050997172905 -0.002949826043649492 -0.0017351955499510618 0.004297957045227205 0.004772057463097471 -0.0019508293295406145 -0.003163716759776104 0.0054392255346597685 -0.005075849682642994 -0.005094373474342072 -0.006790934523781867 -0.003384889073045501 -0.004849136468361725 -0.005174327301078434 -0.008747240486131473 -0.00024528140651951117 -0.008173383857038889 -0.008961804716322646 -0.009417339355092157 -0.005065089454133571 0.006292068870441819 0.003881854448991362 -0.00035911277386317534 -0.004134982682775113 -0.00553948488033546 -0.0003881999688350004 0.0019119956420829774 0.0010368683056598952 -0.00032993914316069664 0.00030564440715931016 -0.0006347401127145117 -0.006992601604782645 -0.0048973102410937745 -0.010007376480974595 -0.00015470195582813835 0.0027757305281490762 0.004796663820426064 -0.002297900135586546 -0.001560737373603677 0.011291745269607583 0.001745147481415188 -0.0032133481846275654 0.007797858730720525 0.0023259097738032738 -0.003764737396109426 0.006943667216050512 0.005118920779998668 -0.005885450740937482 -0.0002476653009414969 -8.776958367723796e-05 0.006549369512041184 -0.0020105270212463274 -0.0030371777670965953 0.0024363685079151765 0.0009775568045866253 -0.0013371369740608234 -0.0031804718349700456 -0.004855138272184625 0.0045233682804709215 0.00723362584672445 0.005917096174512566 -0.0072282814015290405 0.0031480653507804327 -0.0042487867917357525 0.007654898279063425 0.0015232885125442408 0.0035599494651912455 0.0007645538981622931 0.0057330901591657575 -0.007387988892415623 0.00670973138238134 -0.002189700245666741 -0.0035482481973965396 0.0006702956624477256 0.01033218739956448 -0.007387855009503916 -0.0029564820407275956 0.007381840598430823 0.0004157587298488414 -0.007911899123097432 -0.005518985922787 0.008585292896234685 0.006427710392679067 0.0029095625372561203 -0.004356076876071959 -0.009910413791658357 0.003023255001277324 0.005120516208328561 -0.005863799804501468 -0.008626543502445698 -0.003052762320625003 -0.005299636760768904 -0.003497249162385494
were -0.0016961135777157986 -0.007098766377153383 0.008309560514383273 -0.010677596337204292 0.004085888580117502 0.0064752635594645235 -0.002599844634956257 0.005964094611540944 0.01170920664762062 -0.003164654164389834 -0.006649196392655457 -0.004581380463522774 -0.008027475250525062 -0.0033657583447744732 -0.006313507029104088 -0.007640561644538221 -0.00112898140584796 0.002580310523295669 0.0073414328812346375 0.0012148070276122198 -0.005172381768220062 0.0010994770987467332 -0.001437751487670043 0.008636437271806326 0.0011230498862873487 0.0060082491148601876 -0.006501275477190078 0.007977132690774108 -0.0017594672026461922 0.007959217387410305 -0.008938963383446786 0.003823856148466637 0.00012513932994228185 0.0015206071409259246 -0.004320692046762402 -0.010491986020828004 -0.007817105335892516 -0.008619122140358244 0.0028834008363777357 0.0014577307857424867 -0.0034617298991758035 0.008358535859522155 -0.001407181299079887 -0.004111314369683069 -0.00923506168923764 -0.00914356111951003 0.010723752120446245 -0.004070800725457957 -0.007184033133936199 0.004428898037241941 0.006239127696475903 -0.0051589980708244675 0.0013212380249156427 -0.005329457730774514 0.002849754073064436 -0.004233830432150915 -0.0044208060697366654 0.00298675425900993 0.00831209581718378 0.006498144431547685 -0.008918699793866836 -0.005467137204091573 0.0052223793291804295 0.001480559814477932 -0.003033048030126586 -0.0023213548510367136 0.009024318876485764 -0.0036504964095498012 -0.00797274155212852 0.002032205282541161 0.005570995081639425 0.00427806278755518 0.002609215291158762 -0.0069128622933269735 -0.002034043430202556 -0.0010079516240776602 0.002983090775987049 -0.009290431427705864 -0.007736444925698875 0.0013851620394482532 -0.005707330082342113 0.00642986711516807 -0.001051829843411476 0.009190216968735595 -0.00496386830821972 3.195979463105857e-05 0.006060401447360742 -0.003080459322187711 -0.005392310159302063 0.0016167044929964256 0.0007336174471261488 -0.003662486961481839 0.005718114989576861 -0.00833681752952874 0.0011904096820878544 0.00018333919797441922 0.007817441080574512 0.005919417755318467 0.006422593591692434 0.006672363547047346
upon -0.009232662233195944 0.007637498101261868 -0.008920821209110065 -0.0040079543991437695 -0.005219948052730284 -0.00382879953345268 -0.009288812098516659 -0.010956714556827634 -0.0025893930314024064 0.0011526095589612273 -0.005742640013605441 0.008340936791765587 -0.009594089274866168 -0.005574487619345415 0.008707289534372236 0.007790559347168627 0.005710128120633519 0.003835661409208445 0.0014527324251089753 -0.0019181278872896328 0.005330672828263645 0.0025212720925496383 0.005740213063704274 0.0068893781016496096 0.00898445533361651 0.0074397137981246815 -0.008049698909003795 -0.0072271688788367264 0.0014857155983918346 0.005623505539419553 0.006031149208535102 0.007615336124383082 0.0066630388213194565 -0.003557300747409251 0.007381502297489946 -0.005412449322069402 -0.009616476429404098 0.00844733982508346 0.002341908703907724 -0.0017156946295554835 -0.0041766240504908965 -0.002925504893276163 0.005982256573836573 0.001507486272285777 -0.002990700055802749 -0.0064630084618164056 -0.0017394645494112576 0.001341148748906562 0.00525244573046538 -0.0036383000604639 -0.0005357233372210017 0.0026039739036191763 -0.006780147178274506 0.002732772925148972 -0.0001763299700211394 0.002892191698100016 0.0038206997580180705 -0.0004526060392064128 -0.003139066115016414 0.007512132594869895 0.005783241256722249 0.006947239978630519 0.0017360165776071053 0.00819893006304152 0.008753272682290779 -0.00412143421536629 0.008203312392156064 0.001941351815317334 0.007024951692239318 -0.0009209578327665274 -0.0027068851790814238 -0.006599691751696148 -0.010048658041341696 0.0017159738411216742 0.00713228992853229 0.0077865879839836534 -0.003566122305611233 0.00473952639202418 0.0040725816639182585 -0.0031017041685779323 0.005002164037167941 -0.004817020851822401 0.007497887673459693 0.0046078291078711945 0.003596823651936244 0.004696247697045857 0.006893788002674806 0.008235476434823464 -0.0012264993353958496 -0.007082941493784098 0.006328967386666178 0.006072925701366991 0.0010439402831252664 -0.0020382983242267405 -0.008227861101411028 -0.004805797801964218 0.00770278782105875 -0.0031514948535583576 -0.006811269225595011 0.00868945643808481
said 0.007968874567516403 0.007207629403141751 4.3459360974586626e-06 -0.009753588370089843 0.008050830994431057 -0.0026173633009007476 0.004465221850709482 0.0012512829403435303 0.011683915651784362 -0.006930599952862725 0.008597698749244128 -0.007084128274899823 -0.0070398900821932 -0.009413643278424966 -0.006313917742359494 0.008182815186129037 0.007201596054735339 -0.0037992982400861697 0.004696893536178819 0.0004477630030702458 0.007166516842103605 0.005731540308757262 -0.0019496472073528407 -0.003117660145190629 -0.006256775038722977 0.003538031004030596 0.003298757351744412 -0.003103599878324365 0.008042029781790916 -0.004837271203128197 -0.010524118177603337 -0.00016772989130748282 -0.0008730965597682041 -0.0050735460529474285 -0.004676950871230061 -0.009753016948128457 0.0087232599577295 0.006703836910177912 0.0006990291686964736 0.008457772591183046 0.006292433779559691 0.0005046066732823172 0.0077683665652082045 0.0008560820106967267 0.004718414523681117 0.008156106812583113 -0.002885366639185866 -0.0004950847906002309 5.105134650048855e-06 0.0034626955695619636 0.002901375855303327 0.006808533800226129 0.0049200713651357956 -0.007699448768769137 -0.0019362195056270468 -0.007136776401404693 0.008714675556058699 0.005927787130613896 -0.00017732425277989188 0.0038994210348887877 -0.006935098659596406 -0.006065321968476796 0.0002678871215638619 0.00602259125629313 0.00527947114394258 0.0029576231800919313 -0.0025498235032004727 -0.006076104343678295 0.0018154007831815927 -0.0027748342307115145 -0.006189090273851021 -0.009958277977354803 0.0050087273921235465 -0.0024033418674000795 -0.0036423340233423833 -0.008930645711106164 0.007677494856497188 -0.00047852637891826976 0.0020958021182609214 0.00373119396019981 -0.004392726358756508 0.002325609437486326 0.002297478808693334 -0.009427727823177438 0.005359097373333167 0.003015029307624156 0.0056816558393289925 0.006038223382678221 -0.003402811890489168 -0.007167877181266455 0.005082308767172932 0.000760535308720798 0.004446616134373471 0.005692647154898044 -0.0004532144746256313 -0.0064347033367084805 -0.0009881850259758226 0.008224598986668174 -0.006594476422337308 0.008267423888107507
been -0.00702105889715974 0.002486818602350964 0.0010839664967286146 0.0061457149991342285 -0.0052744108655712225 -0.0035816912490686677 -0.007194400807334618 0.0004518803457771851 -0.0027999217590232465 0.010706122000886931 -0.004889616521805609 -0.007051612078529698 -0.004994968806964938 0.006125167939568531 -0.007056810011404608 -0.004581007265104828 -0.009174279977080667 0.005623190270522504 0.004194416834665886 0.006486590126190673 -0.00381804526246428 0.005872760476036506 -0.007820849451077678 -0.0014935735062780705 -0.005113658069107756 -0.002200183294586499 -0.0003005013700616969 0.008095428352879191 0.00012514436821220443 -0.009274986949590542 -0.006690101556490514 -0.004973846114642749 0.001794496744299646 0.010811682238206478 -0.005022266655445988 0.007126130901848559 0.008084356839059514 -0.0076783815662069665 -0.007953437791787688 0.010454647400448182 0.006806219298265536 -0.003527538813862272 -0.005823323889423839 0.005215259790103036 0.003495280181100084 0.008846650836692954 -0.005840054096717557 -0.007849356155929854 0.0008523143214088949 -0.01052378112746572 -0.005306572790273508 -0.0018675832530293105 0.010046364182430394 0.00926959126743234 -0.0016641124278645623 0.00591251457973902 0.007295137855346018 -0.001502481786618856 0.009197884168481158 0.006960540501908822 0.0027851008489960805 -0.0037179103806424378 -0.007640722574168732 -0.0036168178815966135 0.00905714414627503 -0.0089869366883332 -0.0033877265073401345 0.006801520138238133 0.004847829643205676 0.006509487686509436 -0.008675175327384337 -0.0026491870782840783 0.0041266457046731375 -0.005891589790487408 0.005857366600222039 0.00842766853483309 -0.001973679242920215 -0.0032697657932823695 -0.0002930473869624124 -0.004804924588163637 -0.005640927714094604 -0.0008960935572924262 -0.003148073249824599 0.003593648160776039 -0.006527613859031011 0.00586511852981692 -0.008384820535535586 -0.006887435923669149 0.008125286599600011 0.008937447779978604 -0.0053298282569316634 0.002432061424108476 -0.0064944934856612235 -0.009421200640975836 -0.007552671326927586 0.0064679313472879585 0.005512012583081245 0.009321180095536296 0.006677223702850328 0.005617637471666306
then 0.0015139530071544207 -0.011593760790261016 0.0034875377671348606 -0.0018642745139500635 0.0059883640675583265 0.0028367960408517815 -0.00429182829843326 0.004745361233786256 0.003421528989830139 0.0023480239727756602 -0.0051976719524563205 -0.006328685968500477 -0.00786714248136956 0.008362378455455077 -0.009608227809208487 0.009752132374242965 -0.011198772225973451 -0.0007137949727290437 -0.001051148602114567 -0.00505733456123959 0.00793576507434905 0.006664258470250802 0.0011849881570511075 0.005323338237675754 0.0010451832463745218 0.008191392630000006 0.008822080316762864 -0.010313418688548898 -0.004314452198741492 -0.0020655915418914942 0.001712480468664911 -0.0023526685307098723 0.0004831471782050687 -0.006353335076048758 0.0035463268782636574 0.0035190696759276434 0.004447639974056405 -0.003842811964700972 -0.0074615495294562025 -0.008199538878133437 -0.002362130141012709 -0.006060966719153591 -0.005742796617348425 0.0033302628990813073 0.006862421535929157 0.0029530460067855365 -0.006104764377761801 -0.004023586861876538 0.007232247068631378 0.003184276220219379 -0.005639586734601339 -0.005733723750877702 0.001121331729750223 0.00411547425689853 0.003290192583914508 0.0031873154819715473 -0.006545585927431768 -0.009021527631292967 -0.007365933690214826 6.209550933404415e-06 0.005336135174729861 0.004706156092156148 -0.0007903798422458667 0.004616991729232144 0.00113364234063986 0.0011798280366664667 -0.009649068479616702 0.005155307836089791 0.007626608427182708 0.005537301936948841 0.006549127325838939 0.006384387091450415 -0.0007168559022829868 -0.0029489882224218245 -0.0011868287137159232 -0.010344252749663694 0.006799945916017433 -0.007652769132453779 0.00869134768303907 -0.003118979736675762 0.003511949866978367 -0.008511706493498588 -0.010202090640880422 -0.008655948256174188 -0.007327804352495481 0.0009221830749249256 -0.008934980720038187 -0.004023422497663309 -0.0056265466343823145 -0.00426474215353003 0.005028340020957827 0.003735547717290253 0.007969317230163142 0.006404098905146715 -0.00785226848595564 0.006978282613999909 -0.010246677841182232 -0.0026554633699230512 -0.008191493937788024 0.0030203338762724097
what 0.001957725536406294 0.0053309459630823276 0.0018664597657995976 -0.008262232660358264 0.007359985221807041 -0.005090821715798071 0.007936927447603508 0.000156052016377957 -0.0023041186822493646 -0.002570001906530127 -0.004985505028426732 -0.004142394583058459 0.009177636431889947 -0.0029060661366780882 0.0070773390556992544 -0.008967708420558747 0.0003115543010856277 -0.001657080880580576 0.008421130043147556 -0.005459103394638409 0.006836673119819765 -0.005246489266441627 -0.007680319393826225 -0.0051691993986341086 -0.0025218085315414514 -0.004597301256250252 -0.0015109096553218974 -0.007917392062319612 0.0007873739014030434 -0.0013126516701463102 -0.0029130819933594794 0.005690427870087495 -0.008542132603576068 -0.0018610072723028927 0.005931358077346389 0.007496449903225188 -0.010242853259445506 0.0065748994906739845 0.006218816804117854 -0.002870171173443933 0.007126743275545199 -0.008112420290920207 0.008216234003405341 0.002712901737223464 0.0010641972925937312 -0.004363318434281444 -0.0025211980920919978 -0.0017430696134397294 0.000911550046029416 0.0008840018946846777 0.007006263223460833 0.01158067910132972 0.00928149689157594 -0.003321683187757365 0.010827473258938302 -0.0005519975076657086 0.003999166309023911 0.0033258900194513526 -0.0009610942923410964 0.003489385782317682 -0.004613899611285888 -0.005603064199517989 -0.010173097153628161 0.0013470147929514164 0.0077778352199609135 -0.001928748136296318 0.0007346055803778158 0.0007543814268005503 0.009595618530676637 -0.007333854044025595 0.001616106760180132 -0.009428507703639545 0.002317585596756544 0.00835929450774777 0.0059678484659260985 0.00545763940052976 0.0064808226478899915 0.005388470099371096 0.007215718751963736 0.009717171554009175 -0.002227986709013666 0.00984801235079596 0.0044766204307300295 -0.0029306282932256263 0.008861029975708912 0.0055419863836670465 0.008060523778443563 0.003756838840093802 0.009546430831753903 0.0011913095192787957 0.007283466854873537 0.002579164290430278 0.005874602327821776 -0.004281937527015212 0.004765006167210893 0.006976649074204033 -0.0030565548735963107 -0.001987103216709908 0.003199380224528299 -0.008113960451076062
other 0.009940746625282125 -0.01155636912021278 -0.007673776090748354 0.0014637161353179677 0.00614889381143836 -0.004297307873871019 0.0015989497346295552 0.006121369848683984 -0.004998620223804292 -0.0037827599186460825 -0.005640078115075911 -0.001553339711707932 0.0017181282931811768 0.009427678301687014 0.005757659158420707 0.001126201151319864 0.0006113719507332212 0.008085202032485871 0.010042067181943408 0.009442090861160646 0.005308835642195349 -0.007781417066739364 -0.005661052097407677 -0.00519077115776864 0.007131345996227041 -0.003453720487992872 -0.007007751045007766 0.007194003561215306 0.00848232184216613 -0.0040821788411862635 0.007854891151179221 0.00126252209354954 -0.004605695644965057 0.001033516746908638 0.0009811125551509163 -0.004720627989048477 0.002275727510674518 0.005112163323660339 0.007832584621734317 -0.00787891338669314 -0.003780428717039864 -0.004288051240357824 0.00859818475807763 0.0038187476430638608 -0.004606022949288176 0.003166554268153215 -0.0042030176502356135 0.0018492543495085556 0.008726946226405826 -0.00340004795527255 -0.005582391886987766 -0.005717528516966426 -0.0025345106592298675 -0.0002649171299047091 0.004734705562110652 0.009818152700807497 -0.0043599145699938 0.0027281390185552564 0.009344962354754733 0.0013119924855841832 0.0017387140687787905 0.009956340423245407 0.006644014368331144 0.007226416487934661 -0.004918750863659873 0.007090133342981889 0.005383745404701172 0.006603767759357155 -0.0005027235545805358 0.0038175491446798496 0.0061490339417518535 -0.0059673756447657725 0.005185034671740141 0.0013368321881650693 0.0076702823835975405 -0.0040330372893632475 -0.004663715296456675 0.005034649011742493 -0.008744608131978153 -0.006201855364700102 -0.0037278616919965398 -0.00016530801605602562 -0.00301687807156916 0.005996674607476135 0.00965374194889922 -0.0004049027867784554 -0.00021464097848035066 0.002953506995585154 -0.0023927951194557618 -0.00810080908129087 0.005496851621005177 -0.005395467561108738 0.003930028731701896 0.008403432406008837 0.0008640516673701563 0.002827023297868436 0.003164336033974409 -0.00272203011660498 0.003401401786091314 -0.0007674395231085575
more 0.005875247915603474 0.0036735009793615477 0.0006798616734820164 0.004395299342418597 -0.009292427490766964 0.00762017146239073 0.008040988775478168 -0.007248346156715839 0.003489455583886328 -0.002913560750709042 0.0004656639529540288 0.004933072193208235 0.008058439085619862 0.0002521204838889058 0.001866110783752943 0.002027390551203015 0.006508679020705378 -0.006114391071936221 -0.005360108304144391 0.00026450666006315807 -0.0029513129351967523 0.004919208628548818 -0.009968391763818958 -0.00230327699418095 -0.0072419117600061745 0.003933149728585373 -0.0007560342915398492 -0.009524809191299772 0.004194274755718652 0.008209984372528694 -0.004368904836486432 -0.003797474409855733 0.0020364380510396914 0.0010531433806384236 -0.009196600652516778 0.007190180749272589 -0.007862354108841497 -0.005610212151209866 -0.0017201996423533603 -0.00444489888005509 7.063646229322671e-05 0.010961935892489484 0.005716622886459597 0.005289465710203248 -0.0007466761003756387 0.0014876552793959327 -0.0009199789148459042 -0.007125668224034598 0.002632324964824048 0.0013229463312944226 -0.009835744413563092 -0.003269709179717624 -0.009409777445894591 -0.00509261168984019 0.0052725983656604185 0.008697087121452734 0.0031356896526465953 0.0032375326528298583 0.0077858752794616685 -0.0013504127696664496 -0.000643694176687859 -0.008543738977592015 -0.0027895334523319352 -0.003050968869832683 0.0016428503797876394 0.004322803307414605 -0.007574482252080501 -0.006467078217114746 -0.0051610135067841675 -0.0031432535668665714 -0.003950465078973635 5.7158237971386815e-05 0.0018264011814608239 -0.0062069873026551 -0.006211080591046167 9.507039530118073e-05 0.0038849355941320855 0.004134423763554712 -0.002696356024402617 -0.0031263437042732467 -0.002731308818593706 7.93011806143278e-05 0.0012732500551712953 0.000735006952626546 0.007753231086429547 -0.00217662908306176 -0.0017209962494565514 -0.004549297514710237 -0.0015528132869142362 -0.007725892140363364 -0.0029438278420870615 0.00020741759296718306 -0.009274980780901387 0.008077169619024393 -0.011389028361670418 -0.009894957391225034 -0.009430925878818512 0.00723459796757776 0.0050236465017819264 0.008087561284562318
before 0.0029122407206821 -0.0010048148529180749 -0.003682835341103121 0.008030320734674619 0.0024438495344260114 0.005162386042270968 -0.0024143205214799805 -0.0022382563197011636 0.008559706065253438 0.001638431709910616 0.002742387808129107 0.0015287093093237754 0.005230527913557704 0.003371822178120386 0.0019523233144850979 -0.004547428895338354 -0.006621878236976707 0.003888815713832049 -0.005001082054646262 0.003845586663704704 -0.0012824431846225211 0.0033805440603332086 -0.010431621367884376 0.009259664368900385 -0.0004446818888523426 -0.006569478322159161 0.005854953183602034 -0.002430131770035421 -0.007553329480288085 -0.005330424667177298 -0.0017645061055769804 -0.006879751197464595 -0.0004454350961499256 0.0040271081095190975 -0.002460547731474931 0.0013301861869298261 0.00190574820920698 0.009277098878969397 0.002389220705605443 0.0029913982553725045 0.0010483170150440526 -0.0007762182133526287 -0.007407670761246912 0.005168714150468903 -0.0023123527485453947 -0.008793280454648828 -0.004773096961964091 -0.0023114313335099723 0.0031259610867974434 0.004273592081682926 0.005634821814469019 -0.005070829297024333 0.0009466953010401498 -0.0021206027965738694 -0.003950926115397702 0.007118398499931738 0.0029965859159181655 -0.0021506767106157813 -0.008612437244499399 -0.005338465837253766 9.341260010842234e-05 0.008072043886799789 0.003279214824115942 -0.008899187556711364 -0.00826360008134295 0.004143563293010547 -0.0028822686422658576 -0.0062726541522848 0.0073181595127442215 -0.0054371336644346065 0.004457134213721887 -0.002429927201526218 -0.008384730121179018 -0.001618648843511685 0.004669331477171826 0.008186301388460295 0.0006242716507668692 0.003780123976122757 -0.004747488057050346 0.00039887760861099446 -0.0023737633719892156 0.0018755486182106488 -0.002522590605870143 -0.004412014893287877 -0.0065077981086109175 0.010300365805795247 0.00124107022235297 -0.0013383156725798142 -0.00450885058010251 0.00769825045129189 -0.008503325296756388 0.0019837313514223997 6.453148671425879e-05 0.007675781696558592 0.004535613035179929 -0.0031507831045018975 0.0015559184317184686 -0.0017319614602125841 -0.009930783549366011 -0.003793042567188174
into 0.0017147530227455056 0.004505916165230288 0.008809407859437422 0.0076503793084570625 -0.008355054113384209 0.007664720346424887 -0.007084867959334091 -0.0042815306091638795 0.0025856801340441134 0.009090913892908826 0.0038191994998752225 0.0069040522767781195 0.00941428736074489 0.00013297257431655783 -0.006818146494465922 -0.005478722133292732 0.004440840690883553 -0.0056566567367223215 -0.0018255263262703506 0.0082963112403046 -0.0029649598377132365 -0.00612766896797852 -0.0044464256193763995 0.0017269157423553142 0.0032753971941433106 0.0048578855242918835 -0.0033389612931800498 0.0025984058209525592 0.007435215848090593 0.0013449518896364184 0.00394470305367246 -0.0026115929702593185 0.005131704227427359 -0.005952864040657666 0.0042915351137211965 -0.010722848779881711 -0.0032423107808095997 -0.009852517329405104 -0.0005898150164863512 -0.004300945746680637 -0.005731472211085598 0.0025153999820097606 0.00410847886020995 -0.004527611602415246 -0.008545540257314728 -0.00501026445470581 0.002668563543755392 -0.0022790543698647525 -0.01030094441111115 -0.0015718973643908448 0.006182745893469969 0.007780892775785602 -0.00964954923669707 0.003815899216781624 -0.004671496444974433 -0.009084708812389925 -0.0009088836794200522 0.0005906383131249722 -0.007345754258329345 -0.00646126600490375 -0.0016721098072594032 0.007381891483832574 -0.010473346704119733 0.007290572506132197 0.0008776905954370952 -0.0020566132542708974 0.008898436660687863 0.0019410216614646329 -0.0018750755642196798 0.004193099850619381 0.0028760967966677113 0.004060135167740307 -0.0015686209590057842 -0.005857553675675511 -0.0004430578582369808 -0.006614227607232434 -0.0001884383792375129 0.003534435027342459 0.005462833693441512 0.01046088012729094 -0.004445462965205396 -0.004718865040393377 0.005679346701733514 0.0005559476148019629 -0.006181202373806049 0.0015686722525226123 0.0008722790556599978 -0.0015223827318881047 -0.00535469636881978 0.004990791884417625 0.007513707490447401 -0.008579989597571759 -0.0008248171943705529 -0.0032317800545239484 -0.008878919842324896 -0.001688099557213718 -0.006248316313262463 0.009055961778027598 -0.0063175769914364955 0.0025250933183335956
